{"parameters/graph_1fc1.weight": {"_type": "histogram", "values": [1.0, 0.0, 0.0, 0.0, 1.0, 0.0, 0.0, 1.0, 0.0, 1.0, 1.0, 2.0, 0.0, 0.0, 2.0, 2.0, 0.0, 1.0, 1.0, 1.0, 1.0, 2.0, 0.0, 0.0, 1.0, 0.0, 0.0, 1.0, 0.0, 0.0, 3.0, 1.0, 0.0, 0.0, 1.0, 2.0, 0.0, 0.0, 1.0, 0.0, 0.0, 0.0, 0.0, 0.0, 0.0, 0.0, 0.0, 0.0, 0.0, 0.0, 0.0, 0.0, 0.0, 2.0, 0.0, 1.0, 0.0, 0.0, 0.0, 1.0, 0.0, 0.0, 0.0, 1.0], "bins": [-0.227685809135437, -0.22091542184352875, -0.2141450196504593, -0.20737463235855103, -0.20060423016548157, -0.1938338428735733, -0.18706344068050385, -0.18029305338859558, -0.17352265119552612, -0.16675226390361786, -0.1599818766117096, -0.15321147441864014, -0.14644108712673187, -0.13967068493366241, -0.13290029764175415, -0.1261298954486847, -0.11935950815677643, -0.11258911341428757, -0.1058187186717987, -0.09904832392930984, -0.09227792918682098, -0.08550754189491272, -0.07873714715242386, -0.071966752409935, -0.06519635766744614, -0.058425962924957275, -0.051655568182468414, -0.04488517716526985, -0.03811478242278099, -0.03134438768029213, -0.024573994800448418, -0.017803601920604706, -0.011033207178115845, -0.004262813366949558, 0.002507580444216728, 0.009277974255383015, 0.0160483680665493, 0.022818762809038162, 0.029589155688881874, 0.036359548568725586, 0.04312994331121445, 0.04990033805370331, 0.05667073279619217, 0.06344112753868103, 0.0702115148305893, 0.07698190957307816, 0.08375230431556702, 0.09052269905805588, 0.09729309380054474, 0.1040634885430336, 0.11083388328552246, 0.11760427802801132, 0.12437467277050018, 0.13114506006240845, 0.1379154622554779, 0.14468584954738617, 0.15145623683929443, 0.1582266390323639, 0.16499702632427216, 0.1717674285173416, 0.17853781580924988, 0.18530821800231934, 0.1920786052942276, 0.19884900748729706, 0.20561939477920532]}, "_timestamp": 1714586757.7129486, "parameters/graph_1fc1.bias": {"_type": "histogram", "values": [1.0, 0.0, 0.0, 0.0, 0.0, 0.0, 0.0, 0.0, 0.0, 0.0, 0.0, 0.0, 0.0, 0.0, 0.0, 0.0, 0.0, 0.0, 0.0, 0.0, 0.0, 0.0, 0.0, 0.0, 0.0, 0.0, 0.0, 0.0, 0.0, 0.0, 0.0, 0.0, 0.0, 0.0, 0.0, 0.0, 0.0, 0.0, 0.0, 0.0, 0.0, 0.0, 0.0, 0.0, 0.0, 0.0, 0.0, 0.0, 0.0, 0.0, 0.0, 0.0, 0.0, 0.0, 0.0, 0.0, 0.0, 0.0, 0.0, 0.0, 0.0, 0.0, 0.0, 1.0], "bins": [-0.05735987424850464, -0.052747249603271484, -0.04813462495803833, -0.043522004038095474, -0.03890937939286232, -0.034296754747629166, -0.02968413196504116, -0.025071509182453156, -0.02045888453722, -0.015846259891986847, -0.011233637109398842, -0.006621013395488262, -0.0020083896815776825, 0.002604234032332897, 0.007216857746243477, 0.011829481460154057, 0.016442105174064636, 0.02105472981929779, 0.025667352601885796, 0.0302799753844738, 0.034892600029706955, 0.03950522467494011, 0.044117845594882965, 0.04873047024011612, 0.053343094885349274, 0.05795571953058243, 0.06256834417581558, 0.06718096882104874, 0.0717935860157013, 0.07640621066093445, 0.0810188353061676, 0.08563145995140076, 0.09024408459663391, 0.09485670924186707, 0.09946933388710022, 0.10408195853233337, 0.10869458317756653, 0.11330720037221909, 0.11791982501745224, 0.1225324496626854, 0.12714508175849915, 0.1317576915025711, 0.13637031614780426, 0.14098294079303741, 0.14559556543827057, 0.15020819008350372, 0.15482081472873688, 0.15943343937397003, 0.16404606401920319, 0.16865868866443634, 0.1732713133096695, 0.17788393795490265, 0.1824965626001358, 0.18710918724536896, 0.1917218118906021, 0.19633443653583527, 0.20094704627990723, 0.20555967092514038, 0.21017229557037354, 0.2147849202156067, 0.21939754486083984, 0.224010169506073, 0.22862279415130615, 0.2332354187965393, 0.23784804344177246]}, "parameters/graph_1fc2.weight": {"_type": "histogram", "values": [6.0, 8.0, 11.0, 12.0, 17.0, 5.0, 3.0, 13.0, 12.0, 9.0, 11.0, 15.0, 18.0, 7.0, 7.0, 9.0, 11.0, 10.0, 13.0, 8.0, 5.0, 2.0, 3.0, 4.0, 3.0, 4.0, 4.0, 5.0, 2.0, 4.0, 3.0, 3.0, 2.0, 5.0, 2.0, 3.0, 4.0, 3.0, 3.0, 3.0, 2.0, 3.0, 3.0, 1.0, 1.0, 1.0, 0.0, 2.0, 0.0, 1.0, 0.0, 0.0, 0.0, 1.0, 0.0, 0.0, 0.0, 0.0, 0.0, 0.0, 0.0, 0.0, 0.0, 1.0], "bins": [-0.3033182919025421, -0.2736070156097412, -0.2438957691192627, -0.21418450772762299, -0.18447324633598328, -0.15476197004318237, -0.12505070865154266, -0.09533944725990295, -0.06562818586826324, -0.035916924476623535, -0.006205659359693527, 0.02350560389459133, 0.05321686714887619, 0.0829281285405159, 0.1126393973827362, 0.14235065877437592, 0.17206192016601562, 0.20177318155765533, 0.23148444294929504, 0.26119571924209595, 0.29090696573257446, 0.32061824202537537, 0.3503294885158539, 0.3800407648086548, 0.4097520112991333, 0.4394632875919342, 0.4691745638847351, 0.4988858103752136, 0.5285970568656921, 0.5583083629608154, 0.588019609451294, 0.6177308559417725, 0.6474421620368958, 0.6771534085273743, 0.7068647146224976, 0.7365759611129761, 0.7662872076034546, 0.7959984540939331, 0.8257097601890564, 0.8554210066795349, 0.8851322531700134, 0.9148435592651367, 0.9445548057556152, 0.9742660522460938, 1.0039772987365723, 1.0336885452270508, 1.0633997917175293, 1.0931111574172974, 1.1228224039077759, 1.1525336503982544, 1.182244896888733, 1.2119561433792114, 1.24166738986969, 1.2713786363601685, 1.3010900020599365, 1.330801248550415, 1.3605124950408936, 1.390223741531372, 1.4199349880218506, 1.449646234512329, 1.4793574810028076, 1.5090688467025757, 1.5387800931930542, 1.5684913396835327, 1.5982025861740112]}, "parameters/graph_1fc2.bias": {"_type": "histogram", "values": [1.0, 1.0, 0.0, 1.0, 0.0, 0.0, 0.0, 0.0, 1.0, 1.0, 0.0, 0.0, 0.0, 0.0, 0.0, 1.0, 0.0, 0.0, 0.0, 0.0, 0.0, 0.0, 0.0, 2.0, 1.0, 2.0, 2.0, 1.0, 1.0, 0.0, 0.0, 1.0, 0.0, 0.0, 0.0, 0.0, 1.0, 0.0, 0.0, 0.0, 2.0, 1.0, 1.0, 1.0, 0.0, 0.0, 0.0, 1.0, 0.0, 0.0, 0.0, 0.0, 0.0, 0.0, 0.0, 0.0, 0.0, 0.0, 0.0, 0.0, 0.0, 0.0, 0.0, 1.0], "bins": [-0.2888360917568207, -0.27568137645721436, -0.26252666115760803, -0.2493719607591629, -0.23621726036071777, -0.22306254506111145, -0.20990782976150513, -0.19675312936306, -0.18359841406345367, -0.17044369876384735, -0.15728899836540222, -0.1441342830657959, -0.13097956776618958, -0.11782486736774445, -0.10467015206813812, -0.0915154442191124, -0.07836073637008667, -0.06520602852106094, -0.05205131694674492, -0.038896605372428894, -0.025741897523403168, -0.012587187811732292, 0.0005675218999385834, 0.013722231611609459, 0.026876941323280334, 0.04003164917230606, 0.053186360746622086, 0.06634107232093811, 0.07949578016996384, 0.09265048801898956, 0.10580520331859589, 0.11895991116762161, 0.13211458921432495, 0.14526930451393127, 0.1584240049123764, 0.17157872021198273, 0.18473342061042786, 0.19788813591003418, 0.2110428512096405, 0.22419755160808563, 0.23735226690769196, 0.2505069673061371, 0.2636616826057434, 0.27681639790534973, 0.28997111320495605, 0.3031258285045624, 0.3162805140018463, 0.32943522930145264, 0.34258994460105896, 0.3557446599006653, 0.3688993752002716, 0.38205406069755554, 0.39520877599716187, 0.4083634912967682, 0.4215182065963745, 0.43467292189598083, 0.44782763719558716, 0.4609823226928711, 0.4741370379924774, 0.48729175329208374, 0.5004464387893677, 0.5136011838912964, 0.5267558693885803, 0.539910614490509, 0.553065299987793]}, "parameters/graph_1fc3.weight": {"_type": "histogram", "values": [4.0, 2.0, 4.0, 2.0, 4.0, 0.0, 2.0, 0.0, 0.0, 3.0, 4.0, 1.0, 4.0, 0.0, 0.0, 0.0, 0.0, 0.0, 0.0, 0.0, 0.0, 0.0, 0.0, 0.0, 0.0, 0.0, 0.0, 0.0, 0.0, 0.0, 0.0, 1.0, 0.0, 0.0, 0.0, 0.0, 0.0, 0.0, 1.0, 0.0, 0.0, 0.0, 2.0, 0.0, 2.0, 0.0, 0.0, 1.0, 0.0, 0.0, 0.0, 1.0, 0.0, 1.0, 1.0, 1.0, 2.0, 0.0, 2.0, 0.0, 2.0, 0.0, 0.0, 1.0], "bins": [-0.15334440767765045, -0.12657347321510315, -0.09980252385139465, -0.07303158938884735, -0.04626064747571945, -0.019489707425236702, 0.007281232625246048, 0.03405217081308365, 0.06082311272621155, 0.08759405463933945, 0.11436499655246735, 0.14113593101501465, 0.16790688037872314, 0.19467781484127045, 0.22144874930381775, 0.24821969866752625, 0.27499061822891235, 0.30176156759262085, 0.32853251695632935, 0.35530346632003784, 0.38207438588142395, 0.40884533524513245, 0.43561628460884094, 0.46238720417022705, 0.48915815353393555, 0.515929102897644, 0.5427000522613525, 0.569471001625061, 0.5962418913841248, 0.6230128407478333, 0.6497837901115417, 0.6765547394752502, 0.7033256888389587, 0.7300966382026672, 0.7568675875663757, 0.7836385369300842, 0.810409426689148, 0.8371803760528564, 0.8639513254165649, 0.8907222747802734, 0.9174932241439819, 0.9442641735076904, 0.9710350632667542, 0.9978060126304626, 1.024577021598816, 1.0513478517532349, 1.0781188011169434, 1.1048897504806519, 1.1316606998443604, 1.1584316492080688, 1.1852025985717773, 1.2119735479354858, 1.2387444972991943, 1.2655154466629028, 1.2922863960266113, 1.3190573453903198, 1.3458282947540283, 1.3725992441177368, 1.3993700742721558, 1.4261410236358643, 1.4529119729995728, 1.4796829223632812, 1.5064538717269897, 1.5332248210906982, 1.5599957704544067]}, "parameters/graph_1fc3.bias": {"_type": "histogram", "values": [1.0, 0.0, 0.0, 0.0, 0.0, 0.0, 0.0, 0.0, 0.0, 0.0, 0.0, 0.0, 0.0, 0.0, 0.0, 0.0, 0.0, 0.0, 0.0, 0.0, 0.0, 0.0, 0.0, 0.0, 0.0, 0.0, 0.0, 0.0, 0.0, 0.0, 0.0, 0.0, 0.0, 0.0, 0.0, 0.0, 0.0, 0.0, 0.0, 0.0, 0.0, 0.0, 0.0, 0.0, 0.0, 0.0, 0.0, 0.0, 0.0, 0.0, 0.0, 0.0, 0.0, 0.0, 0.0, 0.0, 0.0, 0.0, 0.0, 0.0, 0.0, 0.0, 0.0, 1.0], "bins": [-0.18806374073028564, -0.17425961792469025, -0.16045549511909485, -0.14665135741233826, -0.13284723460674286, -0.11904311180114746, -0.10523898899555206, -0.09143485873937607, -0.07763073593378067, -0.06382661312818527, -0.05002248287200928, -0.03621836006641388, -0.022414233535528183, -0.008610107935965061, 0.005194017663598061, 0.018998142331838608, 0.032802268862724304, 0.04660639539361, 0.0604105219244957, 0.0742146447300911, 0.08801877498626709, 0.10182289779186249, 0.11562702059745789, 0.12943114340305328, 0.14323526620864868, 0.15703940391540527, 0.17084352672100067, 0.18464764952659607, 0.19845177233219147, 0.21225589513778687, 0.22606003284454346, 0.23986415565013885, 0.25366827845573425, 0.26747241616249084, 0.28127652406692505, 0.29508066177368164, 0.30888476967811584, 0.32268890738487244, 0.33649304509162903, 0.35029715299606323, 0.3641012907028198, 0.37790539860725403, 0.3917095363140106, 0.4055136740207672, 0.4193177819252014, 0.433121919631958, 0.4469260275363922, 0.4607301652431488, 0.474534273147583, 0.4883384108543396, 0.5021425485610962, 0.5159466862678528, 0.5297507643699646, 0.5435549020767212, 0.5573590397834778, 0.5711631774902344, 0.584967315196991, 0.5987713932991028, 0.6125755310058594, 0.626379668712616, 0.6401838064193726, 0.6539879441261292, 0.667792022228241, 0.6815961599349976, 0.6954002976417542]}, "gradients/graph_1fc3.bias": {"_type": "histogram", "values": [1.0, 0.0, 0.0, 0.0, 0.0, 0.0, 0.0, 0.0, 0.0, 0.0, 0.0, 0.0, 0.0, 0.0, 0.0, 0.0, 0.0, 0.0, 0.0, 0.0, 0.0, 0.0, 0.0, 0.0, 0.0, 0.0, 0.0, 0.0, 0.0, 0.0, 0.0, 0.0, 0.0, 0.0, 0.0, 0.0, 0.0, 0.0, 0.0, 0.0, 0.0, 0.0, 0.0, 0.0, 0.0, 0.0, 0.0, 0.0, 0.0, 0.0, 0.0, 0.0, 0.0, 0.0, 0.0, 0.0, 0.0, 0.0, 0.0, 0.0, 0.0, 0.0, 0.0, 1.0], "bins": [-1554245.125, -1531744.25, -1509243.5, -1486742.625, -1464241.75, -1441741.0, -1419240.125, -1396739.25, -1374238.5, -1351737.625, -1329236.75, -1306736.0, -1284235.125, -1261734.25, -1239233.5, -1216732.625, -1194231.75, -1171731.0, -1149230.125, -1126729.375, -1104228.5, -1081727.625, -1059226.875, -1036726.0, -1014225.125, -991724.3125, -969223.5, -946722.6875, -924221.8125, -901721.0, -879220.1875, -856719.3125, -834218.5, -811717.6875, -789216.875, -766716.0, -744215.1875, -721714.375, -699213.5, -676712.6875, -654211.875, -631711.0, -609210.1875, -586709.375, -564208.5, -541707.6875, -519206.875, -496706.03125, -474205.1875, -451704.375, -429203.53125, -406702.71875, -384201.875, -361701.03125, -339200.21875, -316699.375, -294198.5625, -271697.71875, -249196.875, -226696.046875, -204195.21875, -181694.390625, -159193.5625, -136692.71875, -114191.890625]}, "gradients/graph_1fc3.weight": {"_type": "histogram", "values": [1.0, 0.0, 0.0, 0.0, 0.0, 0.0, 0.0, 0.0, 0.0, 0.0, 0.0, 0.0, 0.0, 0.0, 1.0, 0.0, 1.0, 1.0, 1.0, 0.0, 0.0, 0.0, 1.0, 0.0, 1.0, 0.0, 1.0, 1.0, 0.0, 1.0, 0.0, 0.0, 0.0, 1.0, 0.0, 0.0, 0.0, 3.0, 1.0, 0.0, 0.0, 1.0, 1.0, 0.0, 0.0, 0.0, 0.0, 0.0, 0.0, 0.0, 0.0, 1.0, 0.0, 0.0, 0.0, 1.0, 0.0, 2.0, 5.0, 3.0, 5.0, 1.0, 1.0, 12.0], "bins": [-1206909440.0, -1188051456.0, -1169193472.0, -1150335616.0, -1131477632.0, -1112619648.0, -1093761664.0, -1074903680.0, -1056045760.0, -1037187776.0, -1018329856.0, -999471872.0, -980613888.0, -961755968.0, -942897984.0, -924040064.0, -905182080.0, -886324096.0, -867466176.0, -848608192.0, -829750272.0, -810892288.0, -792034304.0, -773176384.0, -754318400.0, -735460416.0, -716602496.0, -697744512.0, -678886528.0, -660028608.0, -641170624.0, -622312704.0, -603454720.0, -584596736.0, -565738816.0, -546880832.0, -528022880.0, -509164928.0, -490306944.0, -471448992.0, -452591040.0, -433733088.0, -414875136.0, -396017152.0, -377159200.0, -358301248.0, -339443264.0, -320585312.0, -301727360.0, -282869408.0, -264011440.0, -245153472.0, -226295520.0, -207437568.0, -188579600.0, -169721632.0, -150863680.0, -132005720.0, -113147760.0, -94289800.0, -75431840.0, -56573880.0, -37715920.0, -18857960.0, 0.0]}, "gradients/graph_1fc2.bias": {"_type": "histogram", "values": [2.0, 0.0, 0.0, 0.0, 0.0, 0.0, 1.0, 1.0, 1.0, 1.0, 0.0, 0.0, 1.0, 0.0, 0.0, 0.0, 1.0, 0.0, 0.0, 0.0, 0.0, 0.0, 0.0, 0.0, 0.0, 0.0, 0.0, 0.0, 1.0, 0.0, 0.0, 0.0, 0.0, 0.0, 1.0, 0.0, 0.0, 0.0, 0.0, 1.0, 1.0, 0.0, 0.0, 0.0, 0.0, 0.0, 0.0, 0.0, 0.0, 7.0, 1.0, 0.0, 1.0, 1.0, 0.0, 0.0, 0.0, 0.0, 1.0, 0.0, 0.0, 0.0, 0.0, 1.0], "bins": [-433792.78125, -425044.1875, -416295.625, -407547.03125, -398798.4375, -390049.84375, -381301.28125, -372552.6875, -363804.09375, -355055.53125, -346306.9375, -337558.34375, -328809.75, -320061.1875, -311312.59375, -302564.0, -293815.4375, -285066.84375, -276318.25, -267569.65625, -258821.078125, -250072.5, -241323.90625, -232575.328125, -223826.75, -215078.15625, -206329.578125, -197580.984375, -188832.40625, -180083.8125, -171335.234375, -162586.640625, -153838.0625, -145089.46875, -136340.890625, -127592.296875, -118843.71875, -110095.1328125, -101346.546875, -92597.9609375, -83849.375, -75100.7890625, -66352.203125, -57603.62109375, -48855.03515625, -40106.44921875, -31357.865234375, -22609.28125, -13860.6953125, -5112.1103515625, 3636.474609375, 12385.0595703125, 21133.64453125, 29882.23046875, 38630.8125, 47379.3984375, 56127.984375, 64876.5703125, 73625.15625, 82373.7421875, 91122.328125, 99870.90625, 108619.4921875, 117368.078125, 126116.6640625]}, "gradients/graph_1fc2.weight": {"_type": "histogram", "values": [2.0, 2.0, 0.0, 0.0, 0.0, 0.0, 0.0, 1.0, 2.0, 2.0, 2.0, 0.0, 2.0, 3.0, 0.0, 0.0, 2.0, 1.0, 1.0, 0.0, 1.0, 0.0, 1.0, 1.0, 1.0, 0.0, 0.0, 2.0, 1.0, 1.0, 0.0, 0.0, 2.0, 2.0, 1.0, 3.0, 2.0, 4.0, 1.0, 1.0, 0.0, 0.0, 0.0, 1.0, 0.0, 0.0, 1.0, 3.0, 3.0, 3.0, 2.0, 5.0, 8.0, 14.0, 21.0, 20.0, 29.0, 127.0, 4.0, 0.0, 0.0, 1.0, 1.0, 1.0], "bins": [-104645648.0, -102832472.0, -101019296.0, -99206112.0, -97392936.0, -95579760.0, -93766584.0, -91953408.0, -90140224.0, -88327048.0, -86513872.0, -84700696.0, -82887520.0, -81074344.0, -79261160.0, -77447984.0, -75634808.0, -73821632.0, -72008456.0, -70195272.0, -68382096.0, -66568920.0, -64755744.0, -62942564.0, -61129388.0, -59316212.0, -57503032.0, -55689856.0, -53876680.0, -52063500.0, -50250324.0, -48437144.0, -46623972.0, -44810792.0, -42997616.0, -41184440.0, -39371260.0, -37558084.0, -35744904.0, -33931728.0, -32118552.0, -30305374.0, -28492196.0, -26679018.0, -24865840.0, -23052664.0, -21239486.0, -19426308.0, -17613132.0, -15799954.0, -13986776.0, -12173598.0, -10360421.0, -8547244.0, -6734066.0, -4920888.5, -3107711.0, -1294533.5, 518644.0, 2331821.5, 4144999.0, 5958176.5, 7771354.0, 9584532.0, 11397709.0]}, "gradients/graph_1fc1.bias": {"_type": "histogram", "values": [2.0], "bins": [0.0, 0.0]}, "gradients/graph_1fc1.weight": {"_type": "histogram", "values": [32.0], "bins": [0.0, 0.0]}, "epoch": 14, "train_loss": NaN, "_runtime": 158.8309555053711, "_step": 14, "_wandb": {"runtime": 279}}